~o
<STREAMINFO> 1 1
<VECSIZE> 1<NULLD><USER><DIAGC>
~s "ST_sil_2_1"
<NUMMIXES> 1
<MIXTURE> 1 1.000000e+00
<MEAN> 1
 0.000000e+00
<VARIANCE> 1
 1.000000e+00
<GCONST> 1.837877e+00
~s "ST_liN_2_1"
<NUMMIXES> 1
<MIXTURE> 1 1.000000e+00
<MEAN> 1
 0.000000e+00
<VARIANCE> 1
 1.000000e+00
<GCONST> 1.837877e+00
~s "ST_liN_3_1"
<NUMMIXES> 1
<MIXTURE> 1 1.000000e+00
<MEAN> 1
 0.000000e+00
<VARIANCE> 1
 1.000000e+00
<GCONST> 1.837877e+00
~s "ST_liN_4_1"
<NUMMIXES> 1
<MIXTURE> 1 1.000000e+00
<MEAN> 1
 0.000000e+00
<VARIANCE> 1
 1.000000e+00
<GCONST> 1.837877e+00
~s "ST_liN_5_1"
<NUMMIXES> 1
<MIXTURE> 1 1.000000e+00
<MEAN> 1
 0.000000e+00
<VARIANCE> 1
 1.000000e+00
<GCONST> 1.837877e+00
~s "ST_liN_6_1"
<NUMMIXES> 1
<MIXTURE> 1 1.000000e+00
<MEAN> 1
 0.000000e+00
<VARIANCE> 1
 1.000000e+00
<GCONST> 1.837877e+00
~s "ST_liN_7_1"
<NUMMIXES> 1
<MIXTURE> 1 1.000000e+00
<MEAN> 1
 0.000000e+00
<VARIANCE> 1
 1.000000e+00
<GCONST> 1.837877e+00
~s "ST_liN_8_1"
<NUMMIXES> 1
<MIXTURE> 1 1.000000e+00
<MEAN> 1
 0.000000e+00
<VARIANCE> 1
 1.000000e+00
<GCONST> 1.837877e+00
~s "ST_liN_9_1"
<NUMMIXES> 1
<MIXTURE> 1 1.000000e+00
<MEAN> 1
 0.000000e+00
<VARIANCE> 1
 1.000000e+00
<GCONST> 1.837877e+00
~s "ST_liN_10_1"
<NUMMIXES> 1
<MIXTURE> 1 1.000000e+00
<MEAN> 1
 0.000000e+00
<VARIANCE> 1
 1.000000e+00
<GCONST> 1.837877e+00
~s "ST_liN_11_1"
<NUMMIXES> 1
<MIXTURE> 1 1.000000e+00
<MEAN> 1
 0.000000e+00
<VARIANCE> 1
 1.000000e+00
<GCONST> 1.837877e+00
~s "ST_liN_12_1"
<NUMMIXES> 1
<MIXTURE> 1 1.000000e+00
<MEAN> 1
 0.000000e+00
<VARIANCE> 1
 1.000000e+00
<GCONST> 1.837877e+00
~s "ST_#i_2_1"
<NUMMIXES> 1
<MIXTURE> 1 1.000000e+00
<MEAN> 1
 0.000000e+00
<VARIANCE> 1
 1.000000e+00
<GCONST> 1.837877e+00
~s "ST_#i_3_1"
<NUMMIXES> 1
<MIXTURE> 1 1.000000e+00
<MEAN> 1
 0.000000e+00
<VARIANCE> 1
 1.000000e+00
<GCONST> 1.837877e+00
~s "ST_#i_4_1"
<NUMMIXES> 1
<MIXTURE> 1 1.000000e+00
<MEAN> 1
 0.000000e+00
<VARIANCE> 1
 1.000000e+00
<GCONST> 1.837877e+00
~s "ST_#i_5_1"
<NUMMIXES> 1
<MIXTURE> 1 1.000000e+00
<MEAN> 1
 0.000000e+00
<VARIANCE> 1
 1.000000e+00
<GCONST> 1.837877e+00
~s "ST_#i_6_1"
<NUMMIXES> 1
<MIXTURE> 1 1.000000e+00
<MEAN> 1
 0.000000e+00
<VARIANCE> 1
 1.000000e+00
<GCONST> 1.837877e+00
~s "ST_#i_7_1"
<NUMMIXES> 1
<MIXTURE> 1 1.000000e+00
<MEAN> 1
 0.000000e+00
<VARIANCE> 1
 1.000000e+00
<GCONST> 1.837877e+00
~s "ST_#i_8_1"
<NUMMIXES> 1
<MIXTURE> 1 1.000000e+00
<MEAN> 1
 0.000000e+00
<VARIANCE> 1
 1.000000e+00
<GCONST> 1.837877e+00
~s "ST_#i_9_1"
<NUMMIXES> 1
<MIXTURE> 1 1.000000e+00
<MEAN> 1
 0.000000e+00
<VARIANCE> 1
 1.000000e+00
<GCONST> 1.837877e+00
~s "ST_#i_10_1"
<NUMMIXES> 1
<MIXTURE> 1 1.000000e+00
<MEAN> 1
 0.000000e+00
<VARIANCE> 1
 1.000000e+00
<GCONST> 1.837877e+00
~s "ST_#i_11_1"
<NUMMIXES> 1
<MIXTURE> 1 1.000000e+00
<MEAN> 1
 0.000000e+00
<VARIANCE> 1
 1.000000e+00
<GCONST> 1.837877e+00
~s "ST_#i_12_1"
<NUMMIXES> 1
<MIXTURE> 1 1.000000e+00
<MEAN> 1
 0.000000e+00
<VARIANCE> 1
 1.000000e+00
<GCONST> 1.837877e+00
~s "ST_#er_2_1"
<NUMMIXES> 1
<MIXTURE> 1 1.000000e+00
<MEAN> 1
 0.000000e+00
<VARIANCE> 1
 1.000000e+00
<GCONST> 1.837877e+00
~s "ST_#er_3_1"
<NUMMIXES> 1
<MIXTURE> 1 1.000000e+00
<MEAN> 1
 0.000000e+00
<VARIANCE> 1
 1.000000e+00
<GCONST> 1.837877e+00
~s "ST_#er_4_1"
<NUMMIXES> 1
<MIXTURE> 1 1.000000e+00
<MEAN> 1
 0.000000e+00
<VARIANCE> 1
 1.000000e+00
<GCONST> 1.837877e+00
~s "ST_#er_5_1"
<NUMMIXES> 1
<MIXTURE> 1 1.000000e+00
<MEAN> 1
 0.000000e+00
<VARIANCE> 1
 1.000000e+00
<GCONST> 1.837877e+00
~s "ST_#er_6_1"
<NUMMIXES> 1
<MIXTURE> 1 1.000000e+00
<MEAN> 1
 0.000000e+00
<VARIANCE> 1
 1.000000e+00
<GCONST> 1.837877e+00
~s "ST_#er_7_1"
<NUMMIXES> 1
<MIXTURE> 1 1.000000e+00
<MEAN> 1
 0.000000e+00
<VARIANCE> 1
 1.000000e+00
<GCONST> 1.837877e+00
~s "ST_#er_8_1"
<NUMMIXES> 1
<MIXTURE> 1 1.000000e+00
<MEAN> 1
 0.000000e+00
<VARIANCE> 1
 1.000000e+00
<GCONST> 1.837877e+00
~s "ST_#er_9_1"
<NUMMIXES> 1
<MIXTURE> 1 1.000000e+00
<MEAN> 1
 0.000000e+00
<VARIANCE> 1
 1.000000e+00
<GCONST> 1.837877e+00
~s "ST_#er_10_1"
<NUMMIXES> 1
<MIXTURE> 1 1.000000e+00
<MEAN> 1
 0.000000e+00
<VARIANCE> 1
 1.000000e+00
<GCONST> 1.837877e+00
~s "ST_#er_11_1"
<NUMMIXES> 1
<MIXTURE> 1 1.000000e+00
<MEAN> 1
 0.000000e+00
<VARIANCE> 1
 1.000000e+00
<GCONST> 1.837877e+00
~s "ST_#er_12_1"
<NUMMIXES> 1
<MIXTURE> 1 1.000000e+00
<MEAN> 1
 0.000000e+00
<VARIANCE> 1
 1.000000e+00
<GCONST> 1.837877e+00
~s "ST_san_2_1"
<NUMMIXES> 1
<MIXTURE> 1 1.000000e+00
<MEAN> 1
 0.000000e+00
<VARIANCE> 1
 1.000000e+00
<GCONST> 1.837877e+00
~s "ST_san_3_1"
<NUMMIXES> 1
<MIXTURE> 1 1.000000e+00
<MEAN> 1
 0.000000e+00
<VARIANCE> 1
 1.000000e+00
<GCONST> 1.837877e+00
~s "ST_san_4_1"
<NUMMIXES> 1
<MIXTURE> 1 1.000000e+00
<MEAN> 1
 0.000000e+00
<VARIANCE> 1
 1.000000e+00
<GCONST> 1.837877e+00
~s "ST_san_5_1"
<NUMMIXES> 1
<MIXTURE> 1 1.000000e+00
<MEAN> 1
 0.000000e+00
<VARIANCE> 1
 1.000000e+00
<GCONST> 1.837877e+00
~s "ST_san_6_1"
<NUMMIXES> 1
<MIXTURE> 1 1.000000e+00
<MEAN> 1
 0.000000e+00
<VARIANCE> 1
 1.000000e+00
<GCONST> 1.837877e+00
~s "ST_san_7_1"
<NUMMIXES> 1
<MIXTURE> 1 1.000000e+00
<MEAN> 1
 0.000000e+00
<VARIANCE> 1
 1.000000e+00
<GCONST> 1.837877e+00
~s "ST_san_8_1"
<NUMMIXES> 1
<MIXTURE> 1 1.000000e+00
<MEAN> 1
 0.000000e+00
<VARIANCE> 1
 1.000000e+00
<GCONST> 1.837877e+00
~s "ST_san_9_1"
<NUMMIXES> 1
<MIXTURE> 1 1.000000e+00
<MEAN> 1
 0.000000e+00
<VARIANCE> 1
 1.000000e+00
<GCONST> 1.837877e+00
~s "ST_san_10_1"
<NUMMIXES> 1
<MIXTURE> 1 1.000000e+00
<MEAN> 1
 0.000000e+00
<VARIANCE> 1
 1.000000e+00
<GCONST> 1.837877e+00
~s "ST_san_11_1"
<NUMMIXES> 1
<MIXTURE> 1 1.000000e+00
<MEAN> 1
 0.000000e+00
<VARIANCE> 1
 1.000000e+00
<GCONST> 1.837877e+00
~s "ST_san_12_1"
<NUMMIXES> 1
<MIXTURE> 1 1.000000e+00
<MEAN> 1
 0.000000e+00
<VARIANCE> 1
 1.000000e+00
<GCONST> 1.837877e+00
~s "ST_sy_2_1"
<NUMMIXES> 1
<MIXTURE> 1 1.000000e+00
<MEAN> 1
 0.000000e+00
<VARIANCE> 1
 1.000000e+00
<GCONST> 1.837877e+00
~s "ST_sy_3_1"
<NUMMIXES> 1
<MIXTURE> 1 1.000000e+00
<MEAN> 1
 0.000000e+00
<VARIANCE> 1
 1.000000e+00
<GCONST> 1.837877e+00
~s "ST_sy_4_1"
<NUMMIXES> 1
<MIXTURE> 1 1.000000e+00
<MEAN> 1
 0.000000e+00
<VARIANCE> 1
 1.000000e+00
<GCONST> 1.837877e+00
~s "ST_sy_5_1"
<NUMMIXES> 1
<MIXTURE> 1 1.000000e+00
<MEAN> 1
 0.000000e+00
<VARIANCE> 1
 1.000000e+00
<GCONST> 1.837877e+00
~s "ST_sy_6_1"
<NUMMIXES> 1
<MIXTURE> 1 1.000000e+00
<MEAN> 1
 0.000000e+00
<VARIANCE> 1
 1.000000e+00
<GCONST> 1.837877e+00
~s "ST_sy_7_1"
<NUMMIXES> 1
<MIXTURE> 1 1.000000e+00
<MEAN> 1
 0.000000e+00
<VARIANCE> 1
 1.000000e+00
<GCONST> 1.837877e+00
~s "ST_sy_8_1"
<NUMMIXES> 1
<MIXTURE> 1 1.000000e+00
<MEAN> 1
 0.000000e+00
<VARIANCE> 1
 1.000000e+00
<GCONST> 1.837877e+00
~s "ST_sy_9_1"
<NUMMIXES> 1
<MIXTURE> 1 1.000000e+00
<MEAN> 1
 0.000000e+00
<VARIANCE> 1
 1.000000e+00
<GCONST> 1.837877e+00
~s "ST_sy_10_1"
<NUMMIXES> 1
<MIXTURE> 1 1.000000e+00
<MEAN> 1
 0.000000e+00
<VARIANCE> 1
 1.000000e+00
<GCONST> 1.837877e+00
~s "ST_sy_11_1"
<NUMMIXES> 1
<MIXTURE> 1 1.000000e+00
<MEAN> 1
 0.000000e+00
<VARIANCE> 1
 1.000000e+00
<GCONST> 1.837877e+00
~s "ST_sy_12_1"
<NUMMIXES> 1
<MIXTURE> 1 1.000000e+00
<MEAN> 1
 0.000000e+00
<VARIANCE> 1
 1.000000e+00
<GCONST> 1.837877e+00
~s "ST_#u_2_1"
<NUMMIXES> 1
<MIXTURE> 1 1.000000e+00
<MEAN> 1
 0.000000e+00
<VARIANCE> 1
 1.000000e+00
<GCONST> 1.837877e+00
~s "ST_#u_3_1"
<NUMMIXES> 1
<MIXTURE> 1 1.000000e+00
<MEAN> 1
 0.000000e+00
<VARIANCE> 1
 1.000000e+00
<GCONST> 1.837877e+00
~s "ST_#u_4_1"
<NUMMIXES> 1
<MIXTURE> 1 1.000000e+00
<MEAN> 1
 0.000000e+00
<VARIANCE> 1
 1.000000e+00
<GCONST> 1.837877e+00
~s "ST_#u_5_1"
<NUMMIXES> 1
<MIXTURE> 1 1.000000e+00
<MEAN> 1
 0.000000e+00
<VARIANCE> 1
 1.000000e+00
<GCONST> 1.837877e+00
~s "ST_#u_6_1"
<NUMMIXES> 1
<MIXTURE> 1 1.000000e+00
<MEAN> 1
 0.000000e+00
<VARIANCE> 1
 1.000000e+00
<GCONST> 1.837877e+00
~s "ST_#u_7_1"
<NUMMIXES> 1
<MIXTURE> 1 1.000000e+00
<MEAN> 1
 0.000000e+00
<VARIANCE> 1
 1.000000e+00
<GCONST> 1.837877e+00
~s "ST_#u_8_1"
<NUMMIXES> 1
<MIXTURE> 1 1.000000e+00
<MEAN> 1
 0.000000e+00
<VARIANCE> 1
 1.000000e+00
<GCONST> 1.837877e+00
~s "ST_#u_9_1"
<NUMMIXES> 1
<MIXTURE> 1 1.000000e+00
<MEAN> 1
 0.000000e+00
<VARIANCE> 1
 1.000000e+00
<GCONST> 1.837877e+00
~s "ST_#u_10_1"
<NUMMIXES> 1
<MIXTURE> 1 1.000000e+00
<MEAN> 1
 0.000000e+00
<VARIANCE> 1
 1.000000e+00
<GCONST> 1.837877e+00
~s "ST_#u_11_1"
<NUMMIXES> 1
<MIXTURE> 1 1.000000e+00
<MEAN> 1
 0.000000e+00
<VARIANCE> 1
 1.000000e+00
<GCONST> 1.837877e+00
~s "ST_#u_12_1"
<NUMMIXES> 1
<MIXTURE> 1 1.000000e+00
<MEAN> 1
 0.000000e+00
<VARIANCE> 1
 1.000000e+00
<GCONST> 1.837877e+00
~s "ST_liou_2_1"
<NUMMIXES> 1
<MIXTURE> 1 1.000000e+00
<MEAN> 1
 0.000000e+00
<VARIANCE> 1
 1.000000e+00
<GCONST> 1.837877e+00
~s "ST_liou_3_1"
<NUMMIXES> 1
<MIXTURE> 1 1.000000e+00
<MEAN> 1
 0.000000e+00
<VARIANCE> 1
 1.000000e+00
<GCONST> 1.837877e+00
~s "ST_liou_4_1"
<NUMMIXES> 1
<MIXTURE> 1 1.000000e+00
<MEAN> 1
 0.000000e+00
<VARIANCE> 1
 1.000000e+00
<GCONST> 1.837877e+00
~s "ST_liou_5_1"
<NUMMIXES> 1
<MIXTURE> 1 1.000000e+00
<MEAN> 1
 0.000000e+00
<VARIANCE> 1
 1.000000e+00
<GCONST> 1.837877e+00
~s "ST_liou_6_1"
<NUMMIXES> 1
<MIXTURE> 1 1.000000e+00
<MEAN> 1
 0.000000e+00
<VARIANCE> 1
 1.000000e+00
<GCONST> 1.837877e+00
~s "ST_liou_7_1"
<NUMMIXES> 1
<MIXTURE> 1 1.000000e+00
<MEAN> 1
 0.000000e+00
<VARIANCE> 1
 1.000000e+00
<GCONST> 1.837877e+00
~s "ST_liou_8_1"
<NUMMIXES> 1
<MIXTURE> 1 1.000000e+00
<MEAN> 1
 0.000000e+00
<VARIANCE> 1
 1.000000e+00
<GCONST> 1.837877e+00
~s "ST_liou_9_1"
<NUMMIXES> 1
<MIXTURE> 1 1.000000e+00
<MEAN> 1
 0.000000e+00
<VARIANCE> 1
 1.000000e+00
<GCONST> 1.837877e+00
~s "ST_liou_10_1"
<NUMMIXES> 1
<MIXTURE> 1 1.000000e+00
<MEAN> 1
 0.000000e+00
<VARIANCE> 1
 1.000000e+00
<GCONST> 1.837877e+00
~s "ST_liou_11_1"
<NUMMIXES> 1
<MIXTURE> 1 1.000000e+00
<MEAN> 1
 0.000000e+00
<VARIANCE> 1
 1.000000e+00
<GCONST> 1.837877e+00
~s "ST_liou_12_1"
<NUMMIXES> 1
<MIXTURE> 1 1.000000e+00
<MEAN> 1
 0.000000e+00
<VARIANCE> 1
 1.000000e+00
<GCONST> 1.837877e+00
~s "ST_qi_2_1"
<NUMMIXES> 1
<MIXTURE> 1 1.000000e+00
<MEAN> 1
 0.000000e+00
<VARIANCE> 1
 1.000000e+00
<GCONST> 1.837877e+00
~s "ST_qi_3_1"
<NUMMIXES> 1
<MIXTURE> 1 1.000000e+00
<MEAN> 1
 0.000000e+00
<VARIANCE> 1
 1.000000e+00
<GCONST> 1.837877e+00
~s "ST_qi_4_1"
<NUMMIXES> 1
<MIXTURE> 1 1.000000e+00
<MEAN> 1
 0.000000e+00
<VARIANCE> 1
 1.000000e+00
<GCONST> 1.837877e+00
~s "ST_qi_5_1"
<NUMMIXES> 1
<MIXTURE> 1 1.000000e+00
<MEAN> 1
 0.000000e+00
<VARIANCE> 1
 1.000000e+00
<GCONST> 1.837877e+00
~s "ST_qi_6_1"
<NUMMIXES> 1
<MIXTURE> 1 1.000000e+00
<MEAN> 1
 0.000000e+00
<VARIANCE> 1
 1.000000e+00
<GCONST> 1.837877e+00
~s "ST_qi_7_1"
<NUMMIXES> 1
<MIXTURE> 1 1.000000e+00
<MEAN> 1
 0.000000e+00
<VARIANCE> 1
 1.000000e+00
<GCONST> 1.837877e+00
~s "ST_qi_8_1"
<NUMMIXES> 1
<MIXTURE> 1 1.000000e+00
<MEAN> 1
 0.000000e+00
<VARIANCE> 1
 1.000000e+00
<GCONST> 1.837877e+00
~s "ST_qi_9_1"
<NUMMIXES> 1
<MIXTURE> 1 1.000000e+00
<MEAN> 1
 0.000000e+00
<VARIANCE> 1
 1.000000e+00
<GCONST> 1.837877e+00
~s "ST_qi_10_1"
<NUMMIXES> 1
<MIXTURE> 1 1.000000e+00
<MEAN> 1
 0.000000e+00
<VARIANCE> 1
 1.000000e+00
<GCONST> 1.837877e+00
~s "ST_qi_11_1"
<NUMMIXES> 1
<MIXTURE> 1 1.000000e+00
<MEAN> 1
 0.000000e+00
<VARIANCE> 1
 1.000000e+00
<GCONST> 1.837877e+00
~s "ST_qi_12_1"
<NUMMIXES> 1
<MIXTURE> 1 1.000000e+00
<MEAN> 1
 0.000000e+00
<VARIANCE> 1
 1.000000e+00
<GCONST> 1.837877e+00
~s "ST_ba_2_1"
<NUMMIXES> 1
<MIXTURE> 1 1.000000e+00
<MEAN> 1
 0.000000e+00
<VARIANCE> 1
 1.000000e+00
<GCONST> 1.837877e+00
~s "ST_ba_3_1"
<NUMMIXES> 1
<MIXTURE> 1 1.000000e+00
<MEAN> 1
 0.000000e+00
<VARIANCE> 1
 1.000000e+00
<GCONST> 1.837877e+00
~s "ST_ba_4_1"
<NUMMIXES> 1
<MIXTURE> 1 1.000000e+00
<MEAN> 1
 0.000000e+00
<VARIANCE> 1
 1.000000e+00
<GCONST> 1.837877e+00
~s "ST_ba_5_1"
<NUMMIXES> 1
<MIXTURE> 1 1.000000e+00
<MEAN> 1
 0.000000e+00
<VARIANCE> 1
 1.000000e+00
<GCONST> 1.837877e+00
~s "ST_ba_6_1"
<NUMMIXES> 1
<MIXTURE> 1 1.000000e+00
<MEAN> 1
 0.000000e+00
<VARIANCE> 1
 1.000000e+00
<GCONST> 1.837877e+00
~s "ST_ba_7_1"
<NUMMIXES> 1
<MIXTURE> 1 1.000000e+00
<MEAN> 1
 0.000000e+00
<VARIANCE> 1
 1.000000e+00
<GCONST> 1.837877e+00
~s "ST_ba_8_1"
<NUMMIXES> 1
<MIXTURE> 1 1.000000e+00
<MEAN> 1
 0.000000e+00
<VARIANCE> 1
 1.000000e+00
<GCONST> 1.837877e+00
~s "ST_ba_9_1"
<NUMMIXES> 1
<MIXTURE> 1 1.000000e+00
<MEAN> 1
 0.000000e+00
<VARIANCE> 1
 1.000000e+00
<GCONST> 1.837877e+00
~s "ST_ba_10_1"
<NUMMIXES> 1
<MIXTURE> 1 1.000000e+00
<MEAN> 1
 0.000000e+00
<VARIANCE> 1
 1.000000e+00
<GCONST> 1.837877e+00
~s "ST_ba_11_1"
<NUMMIXES> 1
<MIXTURE> 1 1.000000e+00
<MEAN> 1
 0.000000e+00
<VARIANCE> 1
 1.000000e+00
<GCONST> 1.837877e+00
~s "ST_ba_12_1"
<NUMMIXES> 1
<MIXTURE> 1 1.000000e+00
<MEAN> 1
 0.000000e+00
<VARIANCE> 1
 1.000000e+00
<GCONST> 1.837877e+00
~s "ST_jiou_2_1"
<NUMMIXES> 1
<MIXTURE> 1 1.000000e+00
<MEAN> 1
 0.000000e+00
<VARIANCE> 1
 1.000000e+00
<GCONST> 1.837877e+00
~s "ST_jiou_3_1"
<NUMMIXES> 1
<MIXTURE> 1 1.000000e+00
<MEAN> 1
 0.000000e+00
<VARIANCE> 1
 1.000000e+00
<GCONST> 1.837877e+00
~s "ST_jiou_4_1"
<NUMMIXES> 1
<MIXTURE> 1 1.000000e+00
<MEAN> 1
 0.000000e+00
<VARIANCE> 1
 1.000000e+00
<GCONST> 1.837877e+00
~s "ST_jiou_5_1"
<NUMMIXES> 1
<MIXTURE> 1 1.000000e+00
<MEAN> 1
 0.000000e+00
<VARIANCE> 1
 1.000000e+00
<GCONST> 1.837877e+00
~s "ST_jiou_6_1"
<NUMMIXES> 1
<MIXTURE> 1 1.000000e+00
<MEAN> 1
 0.000000e+00
<VARIANCE> 1
 1.000000e+00
<GCONST> 1.837877e+00
~s "ST_jiou_7_1"
<NUMMIXES> 1
<MIXTURE> 1 1.000000e+00
<MEAN> 1
 0.000000e+00
<VARIANCE> 1
 1.000000e+00
<GCONST> 1.837877e+00
~s "ST_jiou_8_1"
<NUMMIXES> 1
<MIXTURE> 1 1.000000e+00
<MEAN> 1
 0.000000e+00
<VARIANCE> 1
 1.000000e+00
<GCONST> 1.837877e+00
~s "ST_jiou_9_1"
<NUMMIXES> 1
<MIXTURE> 1 1.000000e+00
<MEAN> 1
 0.000000e+00
<VARIANCE> 1
 1.000000e+00
<GCONST> 1.837877e+00
~s "ST_jiou_10_1"
<NUMMIXES> 1
<MIXTURE> 1 1.000000e+00
<MEAN> 1
 0.000000e+00
<VARIANCE> 1
 1.000000e+00
<GCONST> 1.837877e+00
~s "ST_jiou_11_1"
<NUMMIXES> 1
<MIXTURE> 1 1.000000e+00
<MEAN> 1
 0.000000e+00
<VARIANCE> 1
 1.000000e+00
<GCONST> 1.837877e+00
~s "ST_jiou_12_1"
<NUMMIXES> 1
<MIXTURE> 1 1.000000e+00
<MEAN> 1
 0.000000e+00
<VARIANCE> 1
 1.000000e+00
<GCONST> 1.837877e+00
~h "sil"
<BEGINHMM>
<NUMSTATES> 3
<STATE> 2
~s "ST_sil_2_1"
<TRANSP> 3
 0.000000e+00 1.000000e+00 0.000000e+00
 0.000000e+00 6.279199e-01 3.720802e-01
 0.000000e+00 0.000000e+00 0.000000e+00
<ENDHMM>
~h "sp"
<BEGINHMM>
<NUMSTATES> 3
<STATE> 2
~s "ST_sil_2_1"
<TRANSP> 3
 0.000000e+00 7.000000e-01 3.000000e-01
 0.000000e+00 5.000000e-01 5.000000e-01
 0.000000e+00 0.000000e+00 0.000000e+00
<ENDHMM>
~h "liN"
<BEGINHMM>
<NUMSTATES> 13
<STATE> 2
~s "ST_liN_2_1"
<STATE> 3
~s "ST_liN_3_1"
<STATE> 4
~s "ST_liN_4_1"
<STATE> 5
~s "ST_liN_5_1"
<STATE> 6
~s "ST_liN_6_1"
<STATE> 7
~s "ST_liN_7_1"
<STATE> 8
~s "ST_liN_8_1"
<STATE> 9
~s "ST_liN_9_1"
<STATE> 10
~s "ST_liN_10_1"
<STATE> 11
~s "ST_liN_11_1"
<STATE> 12
~s "ST_liN_12_1"
<TRANSP> 13
 0.000000e+00 1.000000e+00 0.000000e+00 0.000000e+00 0.000000e+00 0.000000e+00 0.000000e+00 0.000000e+00 0.000000e+00 0.000000e+00 0.000000e+00 0.000000e+00 0.000000e+00
 0.000000e+00 5.194806e-01 4.805195e-01 0.000000e+00 0.000000e+00 0.000000e+00 0.000000e+00 0.000000e+00 0.000000e+00 0.000000e+00 0.000000e+00 0.000000e+00 0.000000e+00
 0.000000e+00 0.000000e+00 3.898051e-01 6.101949e-01 0.000000e+00 0.000000e+00 0.000000e+00 0.000000e+00 0.000000e+00 0.000000e+00 0.000000e+00 0.000000e+00 0.000000e+00
 0.000000e+00 0.000000e+00 0.000000e+00 5.225806e-01 4.774194e-01 0.000000e+00 0.000000e+00 0.000000e+00 0.000000e+00 0.000000e+00 0.000000e+00 0.000000e+00 0.000000e+00
 0.000000e+00 0.000000e+00 0.000000e+00 0.000000e+00 8.239619e-01 1.760381e-01 0.000000e+00 0.000000e+00 0.000000e+00 0.000000e+00 0.000000e+00 0.000000e+00 0.000000e+00
 0.000000e+00 0.000000e+00 0.000000e+00 0.000000e+00 0.000000e+00 6.961553e-01 3.038446e-01 0.000000e+00 0.000000e+00 0.000000e+00 0.000000e+00 0.000000e+00 0.000000e+00
 0.000000e+00 0.000000e+00 0.000000e+00 0.000000e+00 0.000000e+00 0.000000e+00 6.568297e-01 3.431705e-01 0.000000e+00 0.000000e+00 0.000000e+00 0.000000e+00 0.000000e+00
 0.000000e+00 0.000000e+00 0.000000e+00 0.000000e+00 0.000000e+00 0.000000e+00 0.000000e+00 7.931911e-01 2.068089e-01 0.000000e+00 0.000000e+00 0.000000e+00 0.000000e+00
 0.000000e+00 0.000000e+00 0.000000e+00 0.000000e+00 0.000000e+00 0.000000e+00 0.000000e+00 0.000000e+00 5.137395e-01 4.862604e-01 0.000000e+00 0.000000e+00 0.000000e+00
 0.000000e+00 0.000000e+00 0.000000e+00 0.000000e+00 0.000000e+00 0.000000e+00 0.000000e+00 0.000000e+00 0.000000e+00 4.630606e-01 5.369393e-01 0.000000e+00 0.000000e+00
 0.000000e+00 0.000000e+00 0.000000e+00 0.000000e+00 0.000000e+00 0.000000e+00 0.000000e+00 0.000000e+00 0.000000e+00 0.000000e+00 3.066439e-01 6.933560e-01 0.000000e+00
 0.000000e+00 0.000000e+00 0.000000e+00 0.000000e+00 0.000000e+00 0.000000e+00 0.000000e+00 0.000000e+00 0.000000e+00 0.000000e+00 0.000000e+00 5.747126e-01 4.252874e-01
 0.000000e+00 0.000000e+00 0.000000e+00 0.000000e+00 0.000000e+00 0.000000e+00 0.000000e+00 0.000000e+00 0.000000e+00 0.000000e+00 0.000000e+00 0.000000e+00 0.000000e+00
<ENDHMM>
~h "#i"
<BEGINHMM>
<NUMSTATES> 13
<STATE> 2
~s "ST_#i_2_1"
<STATE> 3
~s "ST_#i_3_1"
<STATE> 4
~s "ST_#i_4_1"
<STATE> 5
~s "ST_#i_5_1"
<STATE> 6
~s "ST_#i_6_1"
<STATE> 7
~s "ST_#i_7_1"
<STATE> 8
~s "ST_#i_8_1"
<STATE> 9
~s "ST_#i_9_1"
<STATE> 10
~s "ST_#i_10_1"
<STATE> 11
~s "ST_#i_11_1"
<STATE> 12
~s "ST_#i_12_1"
<TRANSP> 13
 0.000000e+00 1.000000e+00 0.000000e+00 0.000000e+00 0.000000e+00 0.000000e+00 0.000000e+00 0.000000e+00 0.000000e+00 0.000000e+00 0.000000e+00 0.000000e+00 0.000000e+00
 0.000000e+00 5.849741e-01 4.150259e-01 0.000000e+00 0.000000e+00 0.000000e+00 0.000000e+00 0.000000e+00 0.000000e+00 0.000000e+00 0.000000e+00 0.000000e+00 0.000000e+00
 0.000000e+00 0.000000e+00 7.334443e-01 2.665557e-01 0.000000e+00 0.000000e+00 0.000000e+00 0.000000e+00 0.000000e+00 0.000000e+00 0.000000e+00 0.000000e+00 0.000000e+00
 0.000000e+00 0.000000e+00 0.000000e+00 8.882689e-01 1.117311e-01 0.000000e+00 0.000000e+00 0.000000e+00 0.000000e+00 0.000000e+00 0.000000e+00 0.000000e+00 0.000000e+00
 0.000000e+00 0.000000e+00 0.000000e+00 0.000000e+00 6.409682e-01 3.590319e-01 0.000000e+00 0.000000e+00 0.000000e+00 0.000000e+00 0.000000e+00 0.000000e+00 0.000000e+00
 0.000000e+00 0.000000e+00 0.000000e+00 0.000000e+00 0.000000e+00 7.184243e-02 9.281576e-01 0.000000e+00 0.000000e+00 0.000000e+00 0.000000e+00 0.000000e+00 0.000000e+00
 0.000000e+00 0.000000e+00 0.000000e+00 0.000000e+00 0.000000e+00 0.000000e+00 3.871462e-01 6.128539e-01 0.000000e+00 0.000000e+00 0.000000e+00 0.000000e+00 0.000000e+00
 0.000000e+00 0.000000e+00 0.000000e+00 0.000000e+00 0.000000e+00 0.000000e+00 0.000000e+00 1.000000e-02 9.900009e-01 0.000000e+00 0.000000e+00 0.000000e+00 0.000000e+00
 0.000000e+00 0.000000e+00 0.000000e+00 0.000000e+00 0.000000e+00 0.000000e+00 0.000000e+00 0.000000e+00 2.718182e-01 7.281818e-01 0.000000e+00 0.000000e+00 0.000000e+00
 0.000000e+00 0.000000e+00 0.000000e+00 0.000000e+00 0.000000e+00 0.000000e+00 0.000000e+00 0.000000e+00 0.000000e+00 4.756244e-02 9.524376e-01 0.000000e+00 0.000000e+00
 0.000000e+00 0.000000e+00 0.000000e+00 0.000000e+00 0.000000e+00 0.000000e+00 0.000000e+00 0.000000e+00 0.000000e+00 0.000000e+00 5.207101e-02 9.479290e-01 0.000000e+00
 0.000000e+00 0.000000e+00 0.000000e+00 0.000000e+00 0.000000e+00 0.000000e+00 0.000000e+00 0.000000e+00 0.000000e+00 0.000000e+00 0.000000e+00 5.285462e-01 4.714538e-01
 0.000000e+00 0.000000e+00 0.000000e+00 0.000000e+00 0.000000e+00 0.000000e+00 0.000000e+00 0.000000e+00 0.000000e+00 0.000000e+00 0.000000e+00 0.000000e+00 0.000000e+00
<ENDHMM>
~h "#er"
<BEGINHMM>
<NUMSTATES> 13
<STATE> 2
~s "ST_#er_2_1"
<STATE> 3
~s "ST_#er_3_1"
<STATE> 4
~s "ST_#er_4_1"
<STATE> 5
~s "ST_#er_5_1"
<STATE> 6
~s "ST_#er_6_1"
<STATE> 7
~s "ST_#er_7_1"
<STATE> 8
~s "ST_#er_8_1"
<STATE> 9
~s "ST_#er_9_1"
<STATE> 10
~s "ST_#er_10_1"
<STATE> 11
~s "ST_#er_11_1"
<STATE> 12
~s "ST_#er_12_1"
<TRANSP> 13
 0.000000e+00 1.000000e+00 0.000000e+00 0.000000e+00 0.000000e+00 0.000000e+00 0.000000e+00 0.000000e+00 0.000000e+00 0.000000e+00 0.000000e+00 0.000000e+00 0.000000e+00
 0.000000e+00 6.209056e-01 3.790944e-01 0.000000e+00 0.000000e+00 0.000000e+00 0.000000e+00 0.000000e+00 0.000000e+00 0.000000e+00 0.000000e+00 0.000000e+00 0.000000e+00
 0.000000e+00 0.000000e+00 6.936551e-01 3.063448e-01 0.000000e+00 0.000000e+00 0.000000e+00 0.000000e+00 0.000000e+00 0.000000e+00 0.000000e+00 0.000000e+00 0.000000e+00
 0.000000e+00 0.000000e+00 0.000000e+00 8.483038e-01 1.516963e-01 0.000000e+00 0.000000e+00 0.000000e+00 0.000000e+00 0.000000e+00 0.000000e+00 0.000000e+00 0.000000e+00
 0.000000e+00 0.000000e+00 0.000000e+00 0.000000e+00 7.303871e-01 2.696129e-01 0.000000e+00 0.000000e+00 0.000000e+00 0.000000e+00 0.000000e+00 0.000000e+00 0.000000e+00
 0.000000e+00 0.000000e+00 0.000000e+00 0.000000e+00 0.000000e+00 4.948652e-01 5.051347e-01 0.000000e+00 0.000000e+00 0.000000e+00 0.000000e+00 0.000000e+00 0.000000e+00
 0.000000e+00 0.000000e+00 0.000000e+00 0.000000e+00 0.000000e+00 0.000000e+00 2.425409e-01 7.574592e-01 0.000000e+00 0.000000e+00 0.000000e+00 0.000000e+00 0.000000e+00
 0.000000e+00 0.000000e+00 0.000000e+00 0.000000e+00 0.000000e+00 0.000000e+00 0.000000e+00 1.733193e-01 8.266807e-01 0.000000e+00 0.000000e+00 0.000000e+00 0.000000e+00
 0.000000e+00 0.000000e+00 0.000000e+00 0.000000e+00 0.000000e+00 0.000000e+00 0.000000e+00 0.000000e+00 2.192460e-01 7.807540e-01 0.000000e+00 0.000000e+00 0.000000e+00
 0.000000e+00 0.000000e+00 0.000000e+00 0.000000e+00 0.000000e+00 0.000000e+00 0.000000e+00 0.000000e+00 0.000000e+00 3.778656e-01 6.221343e-01 0.000000e+00 0.000000e+00
 0.000000e+00 0.000000e+00 0.000000e+00 0.000000e+00 0.000000e+00 0.000000e+00 0.000000e+00 0.000000e+00 0.000000e+00 0.000000e+00 8.912040e-02 9.108796e-01 0.000000e+00
 0.000000e+00 0.000000e+00 0.000000e+00 0.000000e+00 0.000000e+00 0.000000e+00 0.000000e+00 0.000000e+00 0.000000e+00 0.000000e+00 0.000000e+00 5.773363e-01 4.226638e-01
 0.000000e+00 0.000000e+00 0.000000e+00 0.000000e+00 0.000000e+00 0.000000e+00 0.000000e+00 0.000000e+00 0.000000e+00 0.000000e+00 0.000000e+00 0.000000e+00 0.000000e+00
<ENDHMM>
~h "san"
<BEGINHMM>
<NUMSTATES> 13
<STATE> 2
~s "ST_san_2_1"
<STATE> 3
~s "ST_san_3_1"
<STATE> 4
~s "ST_san_4_1"
<STATE> 5
~s "ST_san_5_1"
<STATE> 6
~s "ST_san_6_1"
<STATE> 7
~s "ST_san_7_1"
<STATE> 8
~s "ST_san_8_1"
<STATE> 9
~s "ST_san_9_1"
<STATE> 10
~s "ST_san_10_1"
<STATE> 11
~s "ST_san_11_1"
<STATE> 12
~s "ST_san_12_1"
<TRANSP> 13
 0.000000e+00 1.000000e+00 0.000000e+00 0.000000e+00 0.000000e+00 0.000000e+00 0.000000e+00 0.000000e+00 0.000000e+00 0.000000e+00 0.000000e+00 0.000000e+00 0.000000e+00
 0.000000e+00 5.158730e-01 4.841270e-01 0.000000e+00 0.000000e+00 0.000000e+00 0.000000e+00 0.000000e+00 0.000000e+00 0.000000e+00 0.000000e+00 0.000000e+00 0.000000e+00
 0.000000e+00 0.000000e+00 7.678571e-01 2.321429e-01 0.000000e+00 0.000000e+00 0.000000e+00 0.000000e+00 0.000000e+00 0.000000e+00 0.000000e+00 0.000000e+00 0.000000e+00
 0.000000e+00 0.000000e+00 0.000000e+00 5.874090e-01 4.125910e-01 0.000000e+00 0.000000e+00 0.000000e+00 0.000000e+00 0.000000e+00 0.000000e+00 0.000000e+00 0.000000e+00
 0.000000e+00 0.000000e+00 0.000000e+00 0.000000e+00 5.584633e-01 4.415368e-01 0.000000e+00 0.000000e+00 0.000000e+00 0.000000e+00 0.000000e+00 0.000000e+00 0.000000e+00
 0.000000e+00 0.000000e+00 0.000000e+00 0.000000e+00 0.000000e+00 5.460790e-01 4.539210e-01 0.000000e+00 0.000000e+00 0.000000e+00 0.000000e+00 0.000000e+00 0.000000e+00
 0.000000e+00 0.000000e+00 0.000000e+00 0.000000e+00 0.000000e+00 0.000000e+00 7.199859e-01 2.800142e-01 0.000000e+00 0.000000e+00 0.000000e+00 0.000000e+00 0.000000e+00
 0.000000e+00 0.000000e+00 0.000000e+00 0.000000e+00 0.000000e+00 0.000000e+00 0.000000e+00 8.451474e-01 1.548525e-01 0.000000e+00 0.000000e+00 0.000000e+00 0.000000e+00
 0.000000e+00 0.000000e+00 0.000000e+00 0.000000e+00 0.000000e+00 0.000000e+00 0.000000e+00 0.000000e+00 7.977557e-01 2.022443e-01 0.000000e+00 0.000000e+00 0.000000e+00
 0.000000e+00 0.000000e+00 0.000000e+00 0.000000e+00 0.000000e+00 0.000000e+00 0.000000e+00 0.000000e+00 0.000000e+00 7.207746e-01 2.792254e-01 0.000000e+00 0.000000e+00
 0.000000e+00 0.000000e+00 0.000000e+00 0.000000e+00 0.000000e+00 0.000000e+00 0.000000e+00 0.000000e+00 0.000000e+00 0.000000e+00 5.123001e-01 4.876998e-01 0.000000e+00
 0.000000e+00 0.000000e+00 0.000000e+00 0.000000e+00 0.000000e+00 0.000000e+00 0.000000e+00 0.000000e+00 0.000000e+00 0.000000e+00 0.000000e+00 5.766150e-01 4.233849e-01
 0.000000e+00 0.000000e+00 0.000000e+00 0.000000e+00 0.000000e+00 0.000000e+00 0.000000e+00 0.000000e+00 0.000000e+00 0.000000e+00 0.000000e+00 0.000000e+00 0.000000e+00
<ENDHMM>
~h "sy"
<BEGINHMM>
<NUMSTATES> 13
<STATE> 2
~s "ST_sy_2_1"
<STATE> 3
~s "ST_sy_3_1"
<STATE> 4
~s "ST_sy_4_1"
<STATE> 5
~s "ST_sy_5_1"
<STATE> 6
~s "ST_sy_6_1"
<STATE> 7
~s "ST_sy_7_1"
<STATE> 8
~s "ST_sy_8_1"
<STATE> 9
~s "ST_sy_9_1"
<STATE> 10
~s "ST_sy_10_1"
<STATE> 11
~s "ST_sy_11_1"
<STATE> 12
~s "ST_sy_12_1"
<TRANSP> 13
 0.000000e+00 1.000000e+00 0.000000e+00 0.000000e+00 0.000000e+00 0.000000e+00 0.000000e+00 0.000000e+00 0.000000e+00 0.000000e+00 0.000000e+00 0.000000e+00 0.000000e+00
 0.000000e+00 6.962563e-01 3.037437e-01 0.000000e+00 0.000000e+00 0.000000e+00 0.000000e+00 0.000000e+00 0.000000e+00 0.000000e+00 0.000000e+00 0.000000e+00 0.000000e+00
 0.000000e+00 0.000000e+00 8.538805e-01 1.461196e-01 0.000000e+00 0.000000e+00 0.000000e+00 0.000000e+00 0.000000e+00 0.000000e+00 0.000000e+00 0.000000e+00 0.000000e+00
 0.000000e+00 0.000000e+00 0.000000e+00 3.302128e-01 6.697872e-01 0.000000e+00 0.000000e+00 0.000000e+00 0.000000e+00 0.000000e+00 0.000000e+00 0.000000e+00 0.000000e+00
 0.000000e+00 0.000000e+00 0.000000e+00 0.000000e+00 2.884268e-01 7.115732e-01 0.000000e+00 0.000000e+00 0.000000e+00 0.000000e+00 0.000000e+00 0.000000e+00 0.000000e+00
 0.000000e+00 0.000000e+00 0.000000e+00 0.000000e+00 0.000000e+00 1.491892e-01 8.508108e-01 0.000000e+00 0.000000e+00 0.000000e+00 0.000000e+00 0.000000e+00 0.000000e+00
 0.000000e+00 0.000000e+00 0.000000e+00 0.000000e+00 0.000000e+00 0.000000e+00 5.087391e-01 4.912609e-01 0.000000e+00 0.000000e+00 0.000000e+00 0.000000e+00 0.000000e+00
 0.000000e+00 0.000000e+00 0.000000e+00 0.000000e+00 0.000000e+00 0.000000e+00 0.000000e+00 6.082628e-01 3.917372e-01 0.000000e+00 0.000000e+00 0.000000e+00 0.000000e+00
 0.000000e+00 0.000000e+00 0.000000e+00 0.000000e+00 0.000000e+00 0.000000e+00 0.000000e+00 0.000000e+00 8.485956e-01 1.514044e-01 0.000000e+00 0.000000e+00 0.000000e+00
 0.000000e+00 0.000000e+00 0.000000e+00 0.000000e+00 0.000000e+00 0.000000e+00 0.000000e+00 0.000000e+00 0.000000e+00 7.125639e-01 2.874360e-01 0.000000e+00 0.000000e+00
 0.000000e+00 0.000000e+00 0.000000e+00 0.000000e+00 0.000000e+00 0.000000e+00 0.000000e+00 0.000000e+00 0.000000e+00 0.000000e+00 5.099626e-01 4.900374e-01 0.000000e+00
 0.000000e+00 0.000000e+00 0.000000e+00 0.000000e+00 0.000000e+00 0.000000e+00 0.000000e+00 0.000000e+00 0.000000e+00 0.000000e+00 0.000000e+00 5.903175e-01 4.096825e-01
 0.000000e+00 0.000000e+00 0.000000e+00 0.000000e+00 0.000000e+00 0.000000e+00 0.000000e+00 0.000000e+00 0.000000e+00 0.000000e+00 0.000000e+00 0.000000e+00 0.000000e+00
<ENDHMM>
~h "#u"
<BEGINHMM>
<NUMSTATES> 13
<STATE> 2
~s "ST_#u_2_1"
<STATE> 3
~s "ST_#u_3_1"
<STATE> 4
~s "ST_#u_4_1"
<STATE> 5
~s "ST_#u_5_1"
<STATE> 6
~s "ST_#u_6_1"
<STATE> 7
~s "ST_#u_7_1"
<STATE> 8
~s "ST_#u_8_1"
<STATE> 9
~s "ST_#u_9_1"
<STATE> 10
~s "ST_#u_10_1"
<STATE> 11
~s "ST_#u_11_1"
<STATE> 12
~s "ST_#u_12_1"
<TRANSP> 13
 0.000000e+00 1.000000e+00 0.000000e+00 0.000000e+00 0.000000e+00 0.000000e+00 0.000000e+00 0.000000e+00 0.000000e+00 0.000000e+00 0.000000e+00 0.000000e+00 0.000000e+00
 0.000000e+00 5.679264e-01 4.320735e-01 0.000000e+00 0.000000e+00 0.000000e+00 0.000000e+00 0.000000e+00 0.000000e+00 0.000000e+00 0.000000e+00 0.000000e+00 0.000000e+00
 0.000000e+00 0.000000e+00 6.868986e-01 3.131015e-01 0.000000e+00 0.000000e+00 0.000000e+00 0.000000e+00 0.000000e+00 0.000000e+00 0.000000e+00 0.000000e+00 0.000000e+00
 0.000000e+00 0.000000e+00 0.000000e+00 8.798807e-01 1.201193e-01 0.000000e+00 0.000000e+00 0.000000e+00 0.000000e+00 0.000000e+00 0.000000e+00 0.000000e+00 0.000000e+00
 0.000000e+00 0.000000e+00 0.000000e+00 0.000000e+00 6.507019e-01 3.492979e-01 0.000000e+00 0.000000e+00 0.000000e+00 0.000000e+00 0.000000e+00 0.000000e+00 0.000000e+00
 0.000000e+00 0.000000e+00 0.000000e+00 0.000000e+00 0.000000e+00 3.974359e-01 6.025641e-01 0.000000e+00 0.000000e+00 0.000000e+00 0.000000e+00 0.000000e+00 0.000000e+00
 0.000000e+00 0.000000e+00 0.000000e+00 0.000000e+00 0.000000e+00 0.000000e+00 3.891697e-01 6.108303e-01 0.000000e+00 0.000000e+00 0.000000e+00 0.000000e+00 0.000000e+00
 0.000000e+00 0.000000e+00 0.000000e+00 0.000000e+00 0.000000e+00 0.000000e+00 0.000000e+00 3.824817e-01 6.175182e-01 0.000000e+00 0.000000e+00 0.000000e+00 0.000000e+00
 0.000000e+00 0.000000e+00 0.000000e+00 0.000000e+00 0.000000e+00 0.000000e+00 0.000000e+00 0.000000e+00 9.129967e-02 9.087003e-01 0.000000e+00 0.000000e+00 0.000000e+00
 0.000000e+00 0.000000e+00 0.000000e+00 0.000000e+00 0.000000e+00 0.000000e+00 0.000000e+00 0.000000e+00 0.000000e+00 1.000000e-02 9.900007e-01 0.000000e+00 0.000000e+00
 0.000000e+00 0.000000e+00 0.000000e+00 0.000000e+00 0.000000e+00 0.000000e+00 0.000000e+00 0.000000e+00 0.000000e+00 0.000000e+00 1.178311e-01 8.821689e-01 0.000000e+00
 0.000000e+00 0.000000e+00 0.000000e+00 0.000000e+00 0.000000e+00 0.000000e+00 0.000000e+00 0.000000e+00 0.000000e+00 0.000000e+00 0.000000e+00 5.801489e-01 4.198511e-01
 0.000000e+00 0.000000e+00 0.000000e+00 0.000000e+00 0.000000e+00 0.000000e+00 0.000000e+00 0.000000e+00 0.000000e+00 0.000000e+00 0.000000e+00 0.000000e+00 0.000000e+00
<ENDHMM>
~h "liou"
<BEGINHMM>
<NUMSTATES> 13
<STATE> 2
~s "ST_liou_2_1"
<STATE> 3
~s "ST_liou_3_1"
<STATE> 4
~s "ST_liou_4_1"
<STATE> 5
~s "ST_liou_5_1"
<STATE> 6
~s "ST_liou_6_1"
<STATE> 7
~s "ST_liou_7_1"
<STATE> 8
~s "ST_liou_8_1"
<STATE> 9
~s "ST_liou_9_1"
<STATE> 10
~s "ST_liou_10_1"
<STATE> 11
~s "ST_liou_11_1"
<STATE> 12
~s "ST_liou_12_1"
<TRANSP> 13
 0.000000e+00 1.000000e+00 0.000000e+00 0.000000e+00 0.000000e+00 0.000000e+00 0.000000e+00 0.000000e+00 0.000000e+00 0.000000e+00 0.000000e+00 0.000000e+00 0.000000e+00
 0.000000e+00 5.619254e-01 4.380746e-01 0.000000e+00 0.000000e+00 0.000000e+00 0.000000e+00 0.000000e+00 0.000000e+00 0.000000e+00 0.000000e+00 0.000000e+00 0.000000e+00
 0.000000e+00 0.000000e+00 5.282469e-01 4.717531e-01 0.000000e+00 0.000000e+00 0.000000e+00 0.000000e+00 0.000000e+00 0.000000e+00 0.000000e+00 0.000000e+00 0.000000e+00
 0.000000e+00 0.000000e+00 0.000000e+00 7.312542e-01 2.687459e-01 0.000000e+00 0.000000e+00 0.000000e+00 0.000000e+00 0.000000e+00 0.000000e+00 0.000000e+00 0.000000e+00
 0.000000e+00 0.000000e+00 0.000000e+00 0.000000e+00 6.853147e-01 3.146853e-01 0.000000e+00 0.000000e+00 0.000000e+00 0.000000e+00 0.000000e+00 0.000000e+00 0.000000e+00
 0.000000e+00 0.000000e+00 0.000000e+00 0.000000e+00 0.000000e+00 6.517627e-01 3.482374e-01 0.000000e+00 0.000000e+00 0.000000e+00 0.000000e+00 0.000000e+00 0.000000e+00
 0.000000e+00 0.000000e+00 0.000000e+00 0.000000e+00 0.000000e+00 0.000000e+00 6.467510e-01 3.532490e-01 0.000000e+00 0.000000e+00 0.000000e+00 0.000000e+00 0.000000e+00
 0.000000e+00 0.000000e+00 0.000000e+00 0.000000e+00 0.000000e+00 0.000000e+00 0.000000e+00 7.483690e-01 2.516309e-01 0.000000e+00 0.000000e+00 0.000000e+00 0.000000e+00
 0.000000e+00 0.000000e+00 0.000000e+00 0.000000e+00 0.000000e+00 0.000000e+00 0.000000e+00 0.000000e+00 5.331412e-01 4.668588e-01 0.000000e+00 0.000000e+00 0.000000e+00
 0.000000e+00 0.000000e+00 0.000000e+00 0.000000e+00 0.000000e+00 0.000000e+00 0.000000e+00 0.000000e+00 0.000000e+00 3.671874e-01 6.328125e-01 0.000000e+00 0.000000e+00
 0.000000e+00 0.000000e+00 0.000000e+00 0.000000e+00 0.000000e+00 0.000000e+00 0.000000e+00 0.000000e+00 0.000000e+00 0.000000e+00 3.686672e-01 6.313328e-01 0.000000e+00
 0.000000e+00 0.000000e+00 0.000000e+00 0.000000e+00 0.000000e+00 0.000000e+00 0.000000e+00 0.000000e+00 0.000000e+00 0.000000e+00 0.000000e+00 6.195397e-01 3.804603e-01
 0.000000e+00 0.000000e+00 0.000000e+00 0.000000e+00 0.000000e+00 0.000000e+00 0.000000e+00 0.000000e+00 0.000000e+00 0.000000e+00 0.000000e+00 0.000000e+00 0.000000e+00
<ENDHMM>
~h "qi"
<BEGINHMM>
<NUMSTATES> 13
<STATE> 2
~s "ST_qi_2_1"
<STATE> 3
~s "ST_qi_3_1"
<STATE> 4
~s "ST_qi_4_1"
<STATE> 5
~s "ST_qi_5_1"
<STATE> 6
~s "ST_qi_6_1"
<STATE> 7
~s "ST_qi_7_1"
<STATE> 8
~s "ST_qi_8_1"
<STATE> 9
~s "ST_qi_9_1"
<STATE> 10
~s "ST_qi_10_1"
<STATE> 11
~s "ST_qi_11_1"
<STATE> 12
~s "ST_qi_12_1"
<TRANSP> 13
 0.000000e+00 1.000000e+00 0.000000e+00 0.000000e+00 0.000000e+00 0.000000e+00 0.000000e+00 0.000000e+00 0.000000e+00 0.000000e+00 0.000000e+00 0.000000e+00 0.000000e+00
 0.000000e+00 7.076923e-01 2.923078e-01 0.000000e+00 0.000000e+00 0.000000e+00 0.000000e+00 0.000000e+00 0.000000e+00 0.000000e+00 0.000000e+00 0.000000e+00 0.000000e+00
 0.000000e+00 0.000000e+00 8.344227e-01 1.655773e-01 0.000000e+00 0.000000e+00 0.000000e+00 0.000000e+00 0.000000e+00 0.000000e+00 0.000000e+00 0.000000e+00 0.000000e+00
 0.000000e+00 0.000000e+00 0.000000e+00 5.883801e-01 4.116199e-01 0.000000e+00 0.000000e+00 0.000000e+00 0.000000e+00 0.000000e+00 0.000000e+00 0.000000e+00 0.000000e+00
 0.000000e+00 0.000000e+00 0.000000e+00 0.000000e+00 4.149755e-01 5.850245e-01 0.000000e+00 0.000000e+00 0.000000e+00 0.000000e+00 0.000000e+00 0.000000e+00 0.000000e+00
 0.000000e+00 0.000000e+00 0.000000e+00 0.000000e+00 0.000000e+00 4.945586e-01 5.054414e-01 0.000000e+00 0.000000e+00 0.000000e+00 0.000000e+00 0.000000e+00 0.000000e+00
 0.000000e+00 0.000000e+00 0.000000e+00 0.000000e+00 0.000000e+00 0.000000e+00 5.023810e-01 4.976190e-01 0.000000e+00 0.000000e+00 0.000000e+00 0.000000e+00 0.000000e+00
 0.000000e+00 0.000000e+00 0.000000e+00 0.000000e+00 0.000000e+00 0.000000e+00 0.000000e+00 8.661972e-01 1.338028e-01 0.000000e+00 0.000000e+00 0.000000e+00 0.000000e+00
 0.000000e+00 0.000000e+00 0.000000e+00 0.000000e+00 0.000000e+00 0.000000e+00 0.000000e+00 0.000000e+00 7.250000e-01 2.750000e-01 0.000000e+00 0.000000e+00 0.000000e+00
 0.000000e+00 0.000000e+00 0.000000e+00 0.000000e+00 0.000000e+00 0.000000e+00 0.000000e+00 0.000000e+00 0.000000e+00 3.972603e-01 6.027398e-01 0.000000e+00 0.000000e+00
 0.000000e+00 0.000000e+00 0.000000e+00 0.000000e+00 0.000000e+00 0.000000e+00 0.000000e+00 0.000000e+00 0.000000e+00 0.000000e+00 4.855385e-01 5.144615e-01 0.000000e+00
 0.000000e+00 0.000000e+00 0.000000e+00 0.000000e+00 0.000000e+00 0.000000e+00 0.000000e+00 0.000000e+00 0.000000e+00 0.000000e+00 0.000000e+00 5.500538e-01 4.499462e-01
 0.000000e+00 0.000000e+00 0.000000e+00 0.000000e+00 0.000000e+00 0.000000e+00 0.000000e+00 0.000000e+00 0.000000e+00 0.000000e+00 0.000000e+00 0.000000e+00 0.000000e+00
<ENDHMM>
~h "ba"
<BEGINHMM>
<NUMSTATES> 13
<STATE> 2
~s "ST_ba_2_1"
<STATE> 3
~s "ST_ba_3_1"
<STATE> 4
~s "ST_ba_4_1"
<STATE> 5
~s "ST_ba_5_1"
<STATE> 6
~s "ST_ba_6_1"
<STATE> 7
~s "ST_ba_7_1"
<STATE> 8
~s "ST_ba_8_1"
<STATE> 9
~s "ST_ba_9_1"
<STATE> 10
~s "ST_ba_10_1"
<STATE> 11
~s "ST_ba_11_1"
<STATE> 12
~s "ST_ba_12_1"
<TRANSP> 13
 0.000000e+00 1.000000e+00 0.000000e+00 0.000000e+00 0.000000e+00 0.000000e+00 0.000000e+00 0.000000e+00 0.000000e+00 0.000000e+00 0.000000e+00 0.000000e+00 0.000000e+00
 0.000000e+00 6.525782e-01 3.474217e-01 0.000000e+00 0.000000e+00 0.000000e+00 0.000000e+00 0.000000e+00 0.000000e+00 0.000000e+00 0.000000e+00 0.000000e+00 0.000000e+00
 0.000000e+00 0.000000e+00 5.305540e-01 4.694460e-01 0.000000e+00 0.000000e+00 0.000000e+00 0.000000e+00 0.000000e+00 0.000000e+00 0.000000e+00 0.000000e+00 0.000000e+00
 0.000000e+00 0.000000e+00 0.000000e+00 5.978473e-01 4.021526e-01 0.000000e+00 0.000000e+00 0.000000e+00 0.000000e+00 0.000000e+00 0.000000e+00 0.000000e+00 0.000000e+00
 0.000000e+00 0.000000e+00 0.000000e+00 0.000000e+00 8.906769e-01 1.093230e-01 0.000000e+00 0.000000e+00 0.000000e+00 0.000000e+00 0.000000e+00 0.000000e+00 0.000000e+00
 0.000000e+00 0.000000e+00 0.000000e+00 0.000000e+00 0.000000e+00 6.792821e-01 3.207180e-01 0.000000e+00 0.000000e+00 0.000000e+00 0.000000e+00 0.000000e+00 0.000000e+00
 0.000000e+00 0.000000e+00 0.000000e+00 0.000000e+00 0.000000e+00 0.000000e+00 2.845953e-01 7.154047e-01 0.000000e+00 0.000000e+00 0.000000e+00 0.000000e+00 0.000000e+00
 0.000000e+00 0.000000e+00 0.000000e+00 0.000000e+00 0.000000e+00 0.000000e+00 0.000000e+00 3.080809e-01 6.919192e-01 0.000000e+00 0.000000e+00 0.000000e+00 0.000000e+00
 0.000000e+00 0.000000e+00 0.000000e+00 0.000000e+00 0.000000e+00 0.000000e+00 0.000000e+00 0.000000e+00 2.587917e-01 7.412083e-01 0.000000e+00 0.000000e+00 0.000000e+00
 0.000000e+00 0.000000e+00 0.000000e+00 0.000000e+00 0.000000e+00 0.000000e+00 0.000000e+00 0.000000e+00 0.000000e+00 2.026222e-02 9.797378e-01 0.000000e+00 0.000000e+00
 0.000000e+00 0.000000e+00 0.000000e+00 0.000000e+00 0.000000e+00 0.000000e+00 0.000000e+00 0.000000e+00 0.000000e+00 0.000000e+00 4.696774e-01 5.303226e-01 0.000000e+00
 0.000000e+00 0.000000e+00 0.000000e+00 0.000000e+00 0.000000e+00 0.000000e+00 0.000000e+00 0.000000e+00 0.000000e+00 0.000000e+00 0.000000e+00 6.224162e-01 3.775838e-01
 0.000000e+00 0.000000e+00 0.000000e+00 0.000000e+00 0.000000e+00 0.000000e+00 0.000000e+00 0.000000e+00 0.000000e+00 0.000000e+00 0.000000e+00 0.000000e+00 0.000000e+00
<ENDHMM>
~h "jiou"
<BEGINHMM>
<NUMSTATES> 13
<STATE> 2
~s "ST_jiou_2_1"
<STATE> 3
~s "ST_jiou_3_1"
<STATE> 4
~s "ST_jiou_4_1"
<STATE> 5
~s "ST_jiou_5_1"
<STATE> 6
~s "ST_jiou_6_1"
<STATE> 7
~s "ST_jiou_7_1"
<STATE> 8
~s "ST_jiou_8_1"
<STATE> 9
~s "ST_jiou_9_1"
<STATE> 10
~s "ST_jiou_10_1"
<STATE> 11
~s "ST_jiou_11_1"
<STATE> 12
~s "ST_jiou_12_1"
<TRANSP> 13
 0.000000e+00 1.000000e+00 0.000000e+00 0.000000e+00 0.000000e+00 0.000000e+00 0.000000e+00 0.000000e+00 0.000000e+00 0.000000e+00 0.000000e+00 0.000000e+00 0.000000e+00
 0.000000e+00 6.698834e-01 3.301167e-01 0.000000e+00 0.000000e+00 0.000000e+00 0.000000e+00 0.000000e+00 0.000000e+00 0.000000e+00 0.000000e+00 0.000000e+00 0.000000e+00
 0.000000e+00 0.000000e+00 6.252853e-01 3.747147e-01 0.000000e+00 0.000000e+00 0.000000e+00 0.000000e+00 0.000000e+00 0.000000e+00 0.000000e+00 0.000000e+00 0.000000e+00
 0.000000e+00 0.000000e+00 0.000000e+00 7.053123e-01 2.946877e-01 0.000000e+00 0.000000e+00 0.000000e+00 0.000000e+00 0.000000e+00 0.000000e+00 0.000000e+00 0.000000e+00
 0.000000e+00 0.000000e+00 0.000000e+00 0.000000e+00 6.489953e-01 3.510046e-01 0.000000e+00 0.000000e+00 0.000000e+00 0.000000e+00 0.000000e+00 0.000000e+00 0.000000e+00
 0.000000e+00 0.000000e+00 0.000000e+00 0.000000e+00 0.000000e+00 6.209603e-01 3.790397e-01 0.000000e+00 0.000000e+00 0.000000e+00 0.000000e+00 0.000000e+00 0.000000e+00
 0.000000e+00 0.000000e+00 0.000000e+00 0.000000e+00 0.000000e+00 0.000000e+00 6.561977e-01 3.438025e-01 0.000000e+00 0.000000e+00 0.000000e+00 0.000000e+00 0.000000e+00
 0.000000e+00 0.000000e+00 0.000000e+00 0.000000e+00 0.000000e+00 0.000000e+00 0.000000e+00 7.716272e-01 2.283728e-01 0.000000e+00 0.000000e+00 0.000000e+00 0.000000e+00
 0.000000e+00 0.000000e+00 0.000000e+00 0.000000e+00 0.000000e+00 0.000000e+00 0.000000e+00 0.000000e+00 5.074985e-01 4.925015e-01 0.000000e+00 0.000000e+00 0.000000e+00
 0.000000e+00 0.000000e+00 0.000000e+00 0.000000e+00 0.000000e+00 0.000000e+00 0.000000e+00 0.000000e+00 0.000000e+00 4.906948e-01 5.093052e-01 0.000000e+00 0.000000e+00
 0.000000e+00 0.000000e+00 0.000000e+00 0.000000e+00 0.000000e+00 0.000000e+00 0.000000e+00 0.000000e+00 0.000000e+00 0.000000e+00 3.442490e-01 6.557508e-01 0.000000e+00
 0.000000e+00 0.000000e+00 0.000000e+00 0.000000e+00 0.000000e+00 0.000000e+00 0.000000e+00 0.000000e+00 0.000000e+00 0.000000e+00 0.000000e+00 5.943675e-01 4.056324e-01
 0.000000e+00 0.000000e+00 0.000000e+00 0.000000e+00 0.000000e+00 0.000000e+00 0.000000e+00 0.000000e+00 0.000000e+00 0.000000e+00 0.000000e+00 0.000000e+00 0.000000e+00
<ENDHMM>
